digraph Tree {
node [shape=box] ;
0 [label="book4 <= 0.5\ngini = 0.3793\nsamples = 1946\nvalue = [495, 1451]"] ;
1 [label="popularity <= 0.0217\ngini = 0.4781\nsamples = 794\nvalue = [314, 480]"] ;
0 -> 1 [labeldistance=2.5, labelangle=45, headlabel="True"] ;
2 [label="popularity <= 0.0117\ngini = 0.3354\nsamples = 427\nvalue = [91, 336]"] ;
1 -> 2 ;
3 [label="isMarried <= 0.5\ngini = 0.2244\nsamples = 264\nvalue = [34, 230]"] ;
2 -> 3 ;
4 [label="isNoble <= 0.5\ngini = 0.1995\nsamples = 258\nvalue = [29, 229]"] ;
3 -> 4 ;
5 [label="book2 <= 0.5\ngini = 0.2279\nsamples = 183\nvalue = [24, 159]"] ;
4 -> 5 ;
6 [label="male <= 0.5\ngini = 0.2\nsamples = 142\nvalue = [16, 126]"] ;
5 -> 6 ;
7 [label="popularity <= 0.0017\ngini = 0.1634\nsamples = 78\nvalue = [7, 71]"] ;
6 -> 7 ;
8 [label="book3 <= 0.5\ngini = 0.074\nsamples = 26\nvalue = [1, 25]"] ;
7 -> 8 ;
9 [label="book1 <= 0.5\ngini = 0.095\nsamples = 20\nvalue = [1, 19]"] ;
8 -> 9 ;
10 [label="gini = 0.1327\nsamples = 14\nvalue = [1, 13]"] ;
9 -> 10 ;
11 [label="gini = 0.0\nsamples = 6\nvalue = [0, 6]"] ;
9 -> 11 ;
12 [label="gini = 0.0\nsamples = 6\nvalue = [0, 6]"] ;
8 -> 12 ;
13 [label="popularity <= 0.005\ngini = 0.2041\nsamples = 52\nvalue = [6, 46]"] ;
7 -> 13 ;
14 [label="book3 <= 0.5\ngini = 0.2873\nsamples = 23\nvalue = [4, 19]"] ;
13 -> 14 ;
15 [label="book1 <= 0.5\ngini = 0.1528\nsamples = 12\nvalue = [1, 11]"] ;
14 -> 15 ;
16 [label="gini = 0.2449\nsamples = 7\nvalue = [1, 6]"] ;
15 -> 16 ;
17 [label="gini = 0.0\nsamples = 5\nvalue = [0, 5]"] ;
15 -> 17 ;
18 [label="gini = 0.3967\nsamples = 11\nvalue = [3, 8]"] ;
14 -> 18 ;
19 [label="book3 <= 0.5\ngini = 0.1284\nsamples = 29\nvalue = [2, 27]"] ;
13 -> 19 ;
20 [label="popularity <= 0.0084\ngini = 0.1884\nsamples = 19\nvalue = [2, 17]"] ;
19 -> 20 ;
21 [label="book1 <= 0.5\ngini = 0.1244\nsamples = 15\nvalue = [1, 14]"] ;
20 -> 21 ;
22 [label="gini = 0.0\nsamples = 9\nvalue = [0, 9]"] ;
21 -> 22 ;
23 [label="gini = 0.2778\nsamples = 6\nvalue = [1, 5]"] ;
21 -> 23 ;
24 [label="gini = 0.375\nsamples = 4\nvalue = [1, 3]"] ;
20 -> 24 ;
25 [label="gini = 0.0\nsamples = 10\nvalue = [0, 10]"] ;
19 -> 25 ;
26 [label="popularity <= 0.0017\ngini = 0.2417\nsamples = 64\nvalue = [9, 55]"] ;
6 -> 26 ;
27 [label="book1 <= 0.5\ngini = 0.3324\nsamples = 19\nvalue = [4, 15]"] ;
26 -> 27 ;
28 [label="book5 <= 0.5\ngini = 0.3911\nsamples = 15\nvalue = [4, 11]"] ;
27 -> 28 ;
29 [label="book3 <= 0.5\ngini = 0.4082\nsamples = 14\nvalue = [4, 10]"] ;
28 -> 29 ;
30 [label="gini = 0.426\nsamples = 13\nvalue = [4, 9]"] ;
29 -> 30 ;
31 [label="gini = 0.0\nsamples = 1\nvalue = [0, 1]"] ;
29 -> 31 ;
32 [label="gini = 0.0\nsamples = 1\nvalue = [0, 1]"] ;
28 -> 32 ;
33 [label="gini = 0.0\nsamples = 4\nvalue = [0, 4]"] ;
27 -> 33 ;
34 [label="book1 <= 0.5\ngini = 0.1975\nsamples = 45\nvalue = [5, 40]"] ;
26 -> 34 ;
35 [label="book3 <= 0.5\ngini = 0.1454\nsamples = 38\nvalue = [3, 35]"] ;
34 -> 35 ;
36 [label="gini = 0.0\nsamples = 19\nvalue = [0, 19]"] ;
35 -> 36 ;
37 [label="book5 <= 0.5\ngini = 0.2659\nsamples = 19\nvalue = [3, 16]"] ;
35 -> 37 ;
38 [label="popularity <= 0.0084\ngini = 0.1975\nsamples = 18\nvalue = [2, 16]"] ;
37 -> 38 ;
39 [label="gini = 0.1528\nsamples = 12\nvalue = [1, 11]"] ;
38 -> 39 ;
40 [label="gini = 0.2778\nsamples = 6\nvalue = [1, 5]"] ;
38 -> 40 ;
41 [label="gini = 0.0\nsamples = 1\nvalue = [1, 0]"] ;
37 -> 41 ;
42 [label="popularity <= 0.0067\ngini = 0.4082\nsamples = 7\nvalue = [2, 5]"] ;
34 -> 42 ;
43 [label="gini = 0.0\nsamples = 3\nvalue = [0, 3]"] ;
42 -> 43 ;
44 [label="gini = 0.5\nsamples = 4\nvalue = [2, 2]"] ;
42 -> 44 ;
45 [label="popularity <= 0.005\ngini = 0.3141\nsamples = 41\nvalue = [8, 33]"] ;
5 -> 45 ;
46 [label="male <= 0.5\ngini = 0.1049\nsamples = 18\nvalue = [1, 17]"] ;
45 -> 46 ;
47 [label="popularity <= 0.0017\ngini = 0.18\nsamples = 10\nvalue = [1, 9]"] ;
46 -> 47 ;
48 [label="gini = 0.0\nsamples = 2\nvalue = [0, 2]"] ;
47 -> 48 ;
49 [label="book3 <= 0.5\ngini = 0.2188\nsamples = 8\nvalue = [1, 7]"] ;
47 -> 49 ;
50 [label="gini = 0.2449\nsamples = 7\nvalue = [1, 6]"] ;
49 -> 50 ;
51 [label="gini = 0.0\nsamples = 1\nvalue = [0, 1]"] ;
49 -> 51 ;
52 [label="gini = 0.0\nsamples = 8\nvalue = [0, 8]"] ;
46 -> 52 ;
53 [label="book3 <= 0.5\ngini = 0.4234\nsamples = 23\nvalue = [7, 16]"] ;
45 -> 53 ;
54 [label="male <= 0.5\ngini = 0.455\nsamples = 20\nvalue = [7, 13]"] ;
53 -> 54 ;
55 [label="popularity <= 0.0084\ngini = 0.3967\nsamples = 11\nvalue = [3, 8]"] ;
54 -> 55 ;
56 [label="gini = 0.4688\nsamples = 8\nvalue = [3, 5]"] ;
55 -> 56 ;
57 [label="gini = 0.0\nsamples = 3\nvalue = [0, 3]"] ;
55 -> 57 ;
58 [label="book1 <= 0.5\ngini = 0.4938\nsamples = 9\nvalue = [4, 5]"] ;
54 -> 58 ;
59 [label="popularity <= 0.0084\ngini = 0.5\nsamples = 8\nvalue = [4, 4]"] ;
58 -> 59 ;
60 [label="gini = 0.5\nsamples = 4\nvalue = [2, 2]"] ;
59 -> 60 ;
61 [label="gini = 0.5\nsamples = 4\nvalue = [2, 2]"] ;
59 -> 61 ;
62 [label="gini = 0.0\nsamples = 1\nvalue = [0, 1]"] ;
58 -> 62 ;
63 [label="gini = 0.0\nsamples = 3\nvalue = [0, 3]"] ;
53 -> 63 ;
64 [label="popularity <= 0.0017\ngini = 0.1244\nsamples = 75\nvalue = [5, 70]"] ;
4 -> 64 ;
65 [label="male <= 0.5\ngini = 0.2112\nsamples = 25\nvalue = [3, 22]"] ;
64 -> 65 ;
66 [label="book2 <= 0.5\ngini = 0.2975\nsamples = 11\nvalue = [2, 9]"] ;
65 -> 66 ;
67 [label="book3 <= 0.5\ngini = 0.3457\nsamples = 9\nvalue = [2, 7]"] ;
66 -> 67 ;
68 [label="gini = 0.375\nsamples = 8\nvalue = [2, 6]"] ;
67 -> 68 ;
69 [label="gini = 0.0\nsamples = 1\nvalue = [0, 1]"] ;
67 -> 69 ;
70 [label="gini = 0.0\nsamples = 2\nvalue = [0, 2]"] ;
66 -> 70 ;
71 [label="book3 <= 0.5\ngini = 0.1327\nsamples = 14\nvalue = [1, 13]"] ;
65 -> 71 ;
72 [label="book1 <= 0.5\ngini = 0.1653\nsamples = 11\nvalue = [1, 10]"] ;
71 -> 72 ;
73 [label="gini = 0.18\nsamples = 10\nvalue = [1, 9]"] ;
72 -> 73 ;
74 [label="gini = 0.0\nsamples = 1\nvalue = [0, 1]"] ;
72 -> 74 ;
75 [label="gini = 0.0\nsamples = 3\nvalue = [0, 3]"] ;
71 -> 75 ;
76 [label="book3 <= 0.5\ngini = 0.0768\nsamples = 50\nvalue = [2, 48]"] ;
64 -> 76 ;
77 [label="popularity <= 0.0084\ngini = 0.0476\nsamples = 41\nvalue = [1, 40]"] ;
76 -> 77 ;
78 [label="gini = 0.0\nsamples = 26\nvalue = [0, 26]"] ;
77 -> 78 ;
79 [label="male <= 0.5\ngini = 0.1244\nsamples = 15\nvalue = [1, 14]"] ;
77 -> 79 ;
80 [label="book2 <= 0.5\ngini = 0.32\nsamples = 5\nvalue = [1, 4]"] ;
79 -> 80 ;
81 [label="gini = 0.375\nsamples = 4\nvalue = [1, 3]"] ;
80 -> 81 ;
82 [label="gini = 0.0\nsamples = 1\nvalue = [0, 1]"] ;
80 -> 82 ;
83 [label="gini = 0.0\nsamples = 10\nvalue = [0, 10]"] ;
79 -> 83 ;
84 [label="popularity <= 0.005\ngini = 0.1975\nsamples = 9\nvalue = [1, 8]"] ;
76 -> 84 ;
85 [label="gini = 0.0\nsamples = 6\nvalue = [0, 6]"] ;
84 -> 85 ;
86 [label="male <= 0.5\ngini = 0.4444\nsamples = 3\nvalue = [1, 2]"] ;
84 -> 86 ;
87 [label="gini = 0.0\nsamples = 2\nvalue = [0, 2]"] ;
86 -> 87 ;
88 [label="gini = 0.0\nsamples = 1\nvalue = [1, 0]"] ;
86 -> 88 ;
89 [label="isNoble <= 0.5\ngini = 0.2778\nsamples = 6\nvalue = [5, 1]"] ;
3 -> 89 ;
90 [label="gini = 0.0\nsamples = 1\nvalue = [0, 1]"] ;
89 -> 90 ;
91 [label="gini = 0.0\nsamples = 5\nvalue = [5, 0]"] ;
89 -> 91 ;
92 [label="book5 <= 0.5\ngini = 0.4548\nsamples = 163\nvalue = [57, 106]"] ;
2 -> 92 ;
93 [label="book1 <= 0.5\ngini = 0.4861\nsamples = 132\nvalue = [55, 77]"] ;
92 -> 93 ;
94 [label="book3 <= 0.5\ngini = 0.4698\nsamples = 114\nvalue = [43, 71]"] ;
93 -> 94 ;
95 [label="isMarried <= 0.5\ngini = 0.4356\nsamples = 78\nvalue = [25, 53]"] ;
94 -> 95 ;
96 [label="popularity <= 0.0184\ngini = 0.4415\nsamples = 76\nvalue = [25, 51]"] ;
95 -> 96 ;
97 [label="isNoble <= 0.5\ngini = 0.4545\nsamples = 63\nvalue = [22, 41]"] ;
96 -> 97 ;
98 [label="book2 <= 0.5\ngini = 0.4821\nsamples = 37\nvalue = [15, 22]"] ;
97 -> 98 ;
99 [label="male <= 0.5\ngini = 0.4938\nsamples = 9\nvalue = [5, 4]"] ;
98 -> 99 ;
100 [label="gini = 0.5\nsamples = 4\nvalue = [2, 2]"] ;
99 -> 100 ;
101 [label="popularity <= 0.0151\ngini = 0.48\nsamples = 5\nvalue = [3, 2]"] ;
99 -> 101 ;
102 [label="gini = 0.4444\nsamples = 3\nvalue = [2, 1]"] ;
101 -> 102 ;
103 [label="gini = 0.5\nsamples = 2\nvalue = [1, 1]"] ;
101 -> 103 ;
104 [label="popularity <= 0.0151\ngini = 0.4592\nsamples = 28\nvalue = [10, 18]"] ;
98 -> 104 ;
105 [label="male <= 0.5\ngini = 0.4321\nsamples = 19\nvalue = [6, 13]"] ;
104 -> 105 ;
106 [label="gini = 0.375\nsamples = 4\nvalue = [1, 3]"] ;
105 -> 106 ;
107 [label="gini = 0.4444\nsamples = 15\nvalue = [5, 10]"] ;
105 -> 107 ;
108 [label="male <= 0.5\ngini = 0.4938\nsamples = 9\nvalue = [4, 5]"] ;
104 -> 108 ;
109 [label="gini = 0.5\nsamples = 4\nvalue = [2, 2]"] ;
108 -> 109 ;
110 [label="gini = 0.48\nsamples = 5\nvalue = [2, 3]"] ;
108 -> 110 ;
111 [label="male <= 0.5\ngini = 0.3935\nsamples = 26\nvalue = [7, 19]"] ;
97 -> 111 ;
112 [label="book2 <= 0.5\ngini = 0.2449\nsamples = 7\nvalue = [1, 6]"] ;
111 -> 112 ;
113 [label="gini = 0.2778\nsamples = 6\nvalue = [1, 5]"] ;
112 -> 113 ;
114 [label="gini = 0.0\nsamples = 1\nvalue = [0, 1]"] ;
112 -> 114 ;
115 [label="book2 <= 0.5\ngini = 0.4321\nsamples = 19\nvalue = [6, 13]"] ;
111 -> 115 ;
116 [label="popularity <= 0.0151\ngini = 0.375\nsamples = 12\nvalue = [3, 9]"] ;
115 -> 116 ;
117 [label="gini = 0.0\nsamples = 5\nvalue = [0, 5]"] ;
116 -> 117 ;
118 [label="gini = 0.4898\nsamples = 7\nvalue = [3, 4]"] ;
116 -> 118 ;
119 [label="popularity <= 0.0151\ngini = 0.4898\nsamples = 7\nvalue = [3, 4]"] ;
115 -> 119 ;
120 [label="gini = 0.48\nsamples = 5\nvalue = [3, 2]"] ;
119 -> 120 ;
121 [label="gini = 0.0\nsamples = 2\nvalue = [0, 2]"] ;
119 -> 121 ;
122 [label="isNoble <= 0.5\ngini = 0.355\nsamples = 13\nvalue = [3, 10]"] ;
96 -> 122 ;
123 [label="gini = 0.0\nsamples = 7\nvalue = [0, 7]"] ;
122 -> 123 ;
124 [label="male <= 0.5\ngini = 0.5\nsamples = 6\nvalue = [3, 3]"] ;
122 -> 124 ;
125 [label="gini = 0.0\nsamples = 1\nvalue = [1, 0]"] ;
124 -> 125 ;
126 [label="gini = 0.48\nsamples = 5\nvalue = [2, 3]"] ;
124 -> 126 ;
127 [label="gini = 0.0\nsamples = 2\nvalue = [0, 2]"] ;
95 -> 127 ;
128 [label="popularity <= 0.0151\ngini = 0.5\nsamples = 36\nvalue = [18, 18]"] ;
94 -> 128 ;
129 [label="male <= 0.5\ngini = 0.4444\nsamples = 12\nvalue = [8, 4]"] ;
128 -> 129 ;
130 [label="isNoble <= 0.5\ngini = 0.48\nsamples = 5\nvalue = [2, 3]"] ;
129 -> 130 ;
131 [label="gini = 0.5\nsamples = 4\nvalue = [2, 2]"] ;
130 -> 131 ;
132 [label="gini = 0.0\nsamples = 1\nvalue = [0, 1]"] ;
130 -> 132 ;
133 [label="isNoble <= 0.5\ngini = 0.2449\nsamples = 7\nvalue = [6, 1]"] ;
129 -> 133 ;
134 [label="gini = 0.0\nsamples = 5\nvalue = [5, 0]"] ;
133 -> 134 ;
135 [label="gini = 0.5\nsamples = 2\nvalue = [1, 1]"] ;
133 -> 135 ;
136 [label="popularity <= 0.0184\ngini = 0.4861\nsamples = 24\nvalue = [10, 14]"] ;
128 -> 136 ;
137 [label="book2 <= 0.5\ngini = 0.4628\nsamples = 11\nvalue = [4, 7]"] ;
136 -> 137 ;
138 [label="male <= 0.5\ngini = 0.42\nsamples = 10\nvalue = [3, 7]"] ;
137 -> 138 ;
139 [label="gini = 0.0\nsamples = 3\nvalue = [0, 3]"] ;
138 -> 139 ;
140 [label="isNoble <= 0.5\ngini = 0.4898\nsamples = 7\nvalue = [3, 4]"] ;
138 -> 140 ;
141 [label="gini = 0.5\nsamples = 4\nvalue = [2, 2]"] ;
140 -> 141 ;
142 [label="gini = 0.4444\nsamples = 3\nvalue = [1, 2]"] ;
140 -> 142 ;
143 [label="gini = 0.0\nsamples = 1\nvalue = [1, 0]"] ;
137 -> 143 ;
144 [label="isNoble <= 0.5\ngini = 0.497\nsamples = 13\nvalue = [6, 7]"] ;
136 -> 144 ;
145 [label="book2 <= 0.5\ngini = 0.4082\nsamples = 7\nvalue = [2, 5]"] ;
144 -> 145 ;
146 [label="male <= 0.5\ngini = 0.5\nsamples = 4\nvalue = [2, 2]"] ;
145 -> 146 ;
147 [label="gini = 0.5\nsamples = 2\nvalue = [1, 1]"] ;
146 -> 147 ;
148 [label="gini = 0.5\nsamples = 2\nvalue = [1, 1]"] ;
146 -> 148 ;
149 [label="gini = 0.0\nsamples = 3\nvalue = [0, 3]"] ;
145 -> 149 ;
150 [label="book2 <= 0.5\ngini = 0.4444\nsamples = 6\nvalue = [4, 2]"] ;
144 -> 150 ;
151 [label="gini = 0.5\nsamples = 4\nvalue = [2, 2]"] ;
150 -> 151 ;
152 [label="gini = 0.0\nsamples = 2\nvalue = [2, 0]"] ;
150 -> 152 ;
153 [label="isMarried <= 0.5\ngini = 0.4444\nsamples = 18\nvalue = [12, 6]"] ;
93 -> 153 ;
154 [label="isNoble <= 0.5\ngini = 0.375\nsamples = 16\nvalue = [12, 4]"] ;
153 -> 154 ;
155 [label="gini = 0.0\nsamples = 8\nvalue = [8, 0]"] ;
154 -> 155 ;
156 [label="popularity <= 0.0151\ngini = 0.5\nsamples = 8\nvalue = [4, 4]"] ;
154 -> 156 ;
157 [label="gini = 0.0\nsamples = 2\nvalue = [0, 2]"] ;
156 -> 157 ;
158 [label="popularity <= 0.0184\ngini = 0.4444\nsamples = 6\nvalue = [4, 2]"] ;
156 -> 158 ;
159 [label="book3 <= 0.5\ngini = 0.5\nsamples = 4\nvalue = [2, 2]"] ;
158 -> 159 ;
160 [label="male <= 0.5\ngini = 0.4444\nsamples = 3\nvalue = [1, 2]"] ;
159 -> 160 ;
161 [label="gini = 0.0\nsamples = 1\nvalue = [0, 1]"] ;
160 -> 161 ;
162 [label="gini = 0.5\nsamples = 2\nvalue = [1, 1]"] ;
160 -> 162 ;
163 [label="gini = 0.0\nsamples = 1\nvalue = [1, 0]"] ;
159 -> 163 ;
164 [label="gini = 0.0\nsamples = 2\nvalue = [2, 0]"] ;
158 -> 164 ;
165 [label="gini = 0.0\nsamples = 2\nvalue = [0, 2]"] ;
153 -> 165 ;
166 [label="male <= 0.5\ngini = 0.1207\nsamples = 31\nvalue = [2, 29]"] ;
92 -> 166 ;
167 [label="book2 <= 0.5\ngini = 0.2449\nsamples = 14\nvalue = [2, 12]"] ;
166 -> 167 ;
168 [label="isMarried <= 0.5\ngini = 0.32\nsamples = 10\nvalue = [2, 8]"] ;
167 -> 168 ;
169 [label="isNoble <= 0.5\ngini = 0.3457\nsamples = 9\nvalue = [2, 7]"] ;
168 -> 169 ;
170 [label="popularity <= 0.0151\ngini = 0.4444\nsamples = 3\nvalue = [1, 2]"] ;
169 -> 170 ;
171 [label="gini = 0.0\nsamples = 2\nvalue = [0, 2]"] ;
170 -> 171 ;
172 [label="gini = 0.0\nsamples = 1\nvalue = [1, 0]"] ;
170 -> 172 ;
173 [label="popularity <= 0.0151\ngini = 0.2778\nsamples = 6\nvalue = [1, 5]"] ;
169 -> 173 ;
174 [label="gini = 0.5\nsamples = 2\nvalue = [1, 1]"] ;
173 -> 174 ;
175 [label="gini = 0.0\nsamples = 4\nvalue = [0, 4]"] ;
173 -> 175 ;
176 [label="gini = 0.0\nsamples = 1\nvalue = [0, 1]"] ;
168 -> 176 ;
177 [label="gini = 0.0\nsamples = 4\nvalue = [0, 4]"] ;
167 -> 177 ;
178 [label="gini = 0.0\nsamples = 17\nvalue = [0, 17]"] ;
166 -> 178 ;
179 [label="popularity <= 0.2023\ngini = 0.4768\nsamples = 367\nvalue = [223, 144]"] ;
1 -> 179 ;
180 [label="book1 <= 0.5\ngini = 0.4941\nsamples = 303\nvalue = [168, 135]"] ;
179 -> 180 ;
181 [label="numDeadRelations <= 1.5\ngini = 0.5\nsamples = 239\nvalue = [120, 119]"] ;
180 -> 181 ;
182 [label="book5 <= 0.5\ngini = 0.4998\nsamples = 233\nvalue = [114, 119]"] ;
181 -> 182 ;
183 [label="popularity <= 0.0585\ngini = 0.4967\nsamples = 159\nvalue = [86, 73]"] ;
182 -> 183 ;
184 [label="book2 <= 0.5\ngini = 0.4996\nsamples = 101\nvalue = [49, 52]"] ;
183 -> 184 ;
185 [label="book3 <= 0.5\ngini = 0.4885\nsamples = 66\nvalue = [28, 38]"] ;
184 -> 185 ;
186 [label="popularity <= 0.0485\ngini = 0.4991\nsamples = 48\nvalue = [23, 25]"] ;
185 -> 186 ;
187 [label="popularity <= 0.0351\ngini = 0.4888\nsamples = 40\nvalue = [17, 23]"] ;
186 -> 187 ;
188 [label="male <= 0.5\ngini = 0.4992\nsamples = 25\nvalue = [13, 12]"] ;
187 -> 188 ;
189 [label="gini = 0.2778\nsamples = 6\nvalue = [5, 1]"] ;
188 -> 189 ;
190 [label="gini = 0.4875\nsamples = 19\nvalue = [8, 11]"] ;
188 -> 190 ;
191 [label="isMarried <= 0.5\ngini = 0.3911\nsamples = 15\nvalue = [4, 11]"] ;
187 -> 191 ;
192 [label="gini = 0.3367\nsamples = 14\nvalue = [3, 11]"] ;
191 -> 192 ;
193 [label="gini = 0.0\nsamples = 1\nvalue = [1, 0]"] ;
191 -> 193 ;
194 [label="isNoble <= 0.5\ngini = 0.375\nsamples = 8\nvalue = [6, 2]"] ;
186 -> 194 ;
195 [label="popularity <= 0.0518\ngini = 0.4444\nsamples = 3\nvalue = [1, 2]"] ;
194 -> 195 ;
196 [label="gini = 0.0\nsamples = 1\nvalue = [0, 1]"] ;
195 -> 196 ;
197 [label="gini = 0.5\nsamples = 2\nvalue = [1, 1]"] ;
195 -> 197 ;
198 [label="gini = 0.0\nsamples = 5\nvalue = [5, 0]"] ;
194 -> 198 ;
199 [label="popularity <= 0.0452\ngini = 0.4012\nsamples = 18\nvalue = [5, 13]"] ;
185 -> 199 ;
200 [label="male <= 0.5\ngini = 0.4734\nsamples = 13\nvalue = [5, 8]"] ;
199 -> 200 ;
201 [label="gini = 0.0\nsamples = 4\nvalue = [0, 4]"] ;
200 -> 201 ;
202 [label="popularity <= 0.0268\ngini = 0.4938\nsamples = 9\nvalue = [5, 4]"] ;
200 -> 202 ;
203 [label="gini = 0.375\nsamples = 4\nvalue = [1, 3]"] ;
202 -> 203 ;
204 [label="gini = 0.32\nsamples = 5\nvalue = [4, 1]"] ;
202 -> 204 ;
205 [label="gini = 0.0\nsamples = 5\nvalue = [0, 5]"] ;
199 -> 205 ;
206 [label="popularity <= 0.0502\ngini = 0.48\nsamples = 35\nvalue = [21, 14]"] ;
184 -> 206 ;
207 [label="popularity <= 0.0318\ngini = 0.4628\nsamples = 33\nvalue = [21, 12]"] ;
206 -> 207 ;
208 [label="popularity <= 0.0251\ngini = 0.4082\nsamples = 14\nvalue = [10, 4]"] ;
207 -> 208 ;
209 [label="book3 <= 0.5\ngini = 0.4938\nsamples = 9\nvalue = [5, 4]"] ;
208 -> 209 ;
210 [label="gini = 0.48\nsamples = 5\nvalue = [2, 3]"] ;
209 -> 210 ;
211 [label="gini = 0.375\nsamples = 4\nvalue = [3, 1]"] ;
209 -> 211 ;
212 [label="gini = 0.0\nsamples = 5\nvalue = [5, 0]"] ;
208 -> 212 ;
213 [label="popularity <= 0.0351\ngini = 0.4875\nsamples = 19\nvalue = [11, 8]"] ;
207 -> 213 ;
214 [label="book3 <= 0.5\ngini = 0.32\nsamples = 5\nvalue = [1, 4]"] ;
213 -> 214 ;
215 [label="gini = 0.0\nsamples = 3\nvalue = [0, 3]"] ;
214 -> 215 ;
216 [label="gini = 0.5\nsamples = 2\nvalue = [1, 1]"] ;
214 -> 216 ;
217 [label="book3 <= 0.5\ngini = 0.4082\nsamples = 14\nvalue = [10, 4]"] ;
213 -> 217 ;
218 [label="gini = 0.0\nsamples = 5\nvalue = [5, 0]"] ;
217 -> 218 ;
219 [label="gini = 0.4938\nsamples = 9\nvalue = [5, 4]"] ;
217 -> 219 ;
220 [label="gini = 0.0\nsamples = 2\nvalue = [0, 2]"] ;
206 -> 220 ;
221 [label="book2 <= 0.5\ngini = 0.462\nsamples = 58\nvalue = [37, 21]"] ;
183 -> 221 ;
222 [label="isNoble <= 0.5\ngini = 0.4055\nsamples = 46\nvalue = [33, 13]"] ;
221 -> 222 ;
223 [label="male <= 0.5\ngini = 0.4444\nsamples = 9\nvalue = [3, 6]"] ;
222 -> 223 ;
224 [label="gini = 0.0\nsamples = 2\nvalue = [2, 0]"] ;
223 -> 224 ;
225 [label="popularity <= 0.0753\ngini = 0.2449\nsamples = 7\nvalue = [1, 6]"] ;
223 -> 225 ;
226 [label="popularity <= 0.0719\ngini = 0.4444\nsamples = 3\nvalue = [1, 2]"] ;
225 -> 226 ;
227 [label="gini = 0.0\nsamples = 2\nvalue = [0, 2]"] ;
226 -> 227 ;
228 [label="gini = 0.0\nsamples = 1\nvalue = [1, 0]"] ;
226 -> 228 ;
229 [label="gini = 0.0\nsamples = 4\nvalue = [0, 4]"] ;
225 -> 229 ;
230 [label="popularity <= 0.1455\ngini = 0.3068\nsamples = 37\nvalue = [30, 7]"] ;
222 -> 230 ;
231 [label="popularity <= 0.0652\ngini = 0.1372\nsamples = 27\nvalue = [25, 2]"] ;
230 -> 231 ;
232 [label="book3 <= 0.5\ngini = 0.4444\nsamples = 3\nvalue = [2, 1]"] ;
231 -> 232 ;
233 [label="gini = 0.0\nsamples = 2\nvalue = [2, 0]"] ;
232 -> 233 ;
234 [label="gini = 0.0\nsamples = 1\nvalue = [0, 1]"] ;
232 -> 234 ;
235 [label="isMarried <= 0.5\ngini = 0.0799\nsamples = 24\nvalue = [23, 1]"] ;
231 -> 235 ;
236 [label="gini = 0.0\nsamples = 15\nvalue = [15, 0]"] ;
235 -> 236 ;
237 [label="gini = 0.1975\nsamples = 9\nvalue = [8, 1]"] ;
235 -> 237 ;
238 [label="popularity <= 0.1689\ngini = 0.5\nsamples = 10\nvalue = [5, 5]"] ;
230 -> 238 ;
239 [label="gini = 0.0\nsamples = 4\nvalue = [0, 4]"] ;
238 -> 239 ;
240 [label="numDeadRelations <= 0.5\ngini = 0.2778\nsamples = 6\nvalue = [5, 1]"] ;
238 -> 240 ;
241 [label="gini = 0.0\nsamples = 5\nvalue = [5, 0]"] ;
240 -> 241 ;
242 [label="gini = 0.0\nsamples = 1\nvalue = [0, 1]"] ;
240 -> 242 ;
243 [label="book3 <= 0.5\ngini = 0.4444\nsamples = 12\nvalue = [4, 8]"] ;
221 -> 243 ;
244 [label="popularity <= 0.1221\ngini = 0.2188\nsamples = 8\nvalue = [1, 7]"] ;
243 -> 244 ;
245 [label="popularity <= 0.112\ngini = 0.4444\nsamples = 3\nvalue = [1, 2]"] ;
244 -> 245 ;
246 [label="gini = 0.0\nsamples = 2\nvalue = [0, 2]"] ;
245 -> 246 ;
247 [label="gini = 0.0\nsamples = 1\nvalue = [1, 0]"] ;
245 -> 247 ;
248 [label="gini = 0.0\nsamples = 5\nvalue = [0, 5]"] ;
244 -> 248 ;
249 [label="popularity <= 0.0753\ngini = 0.375\nsamples = 4\nvalue = [3, 1]"] ;
243 -> 249 ;
250 [label="male <= 0.5\ngini = 0.5\nsamples = 2\nvalue = [1, 1]"] ;
249 -> 250 ;
251 [label="gini = 0.0\nsamples = 1\nvalue = [1, 0]"] ;
250 -> 251 ;
252 [label="gini = 0.0\nsamples = 1\nvalue = [0, 1]"] ;
250 -> 252 ;
253 [label="gini = 0.0\nsamples = 2\nvalue = [2, 0]"] ;
249 -> 253 ;
254 [label="book2 <= 0.5\ngini = 0.4704\nsamples = 74\nvalue = [28, 46]"] ;
182 -> 254 ;
255 [label="popularity <= 0.0786\ngini = 0.4334\nsamples = 63\nvalue = [20, 43]"] ;
254 -> 255 ;
256 [label="popularity <= 0.0418\ngini = 0.4712\nsamples = 50\nvalue = [19, 31]"] ;
255 -> 256 ;
257 [label="popularity <= 0.0251\ngini = 0.2873\nsamples = 23\nvalue = [4, 19]"] ;
256 -> 257 ;
258 [label="book3 <= 0.5\ngini = 0.4898\nsamples = 7\nvalue = [3, 4]"] ;
257 -> 258 ;
259 [label="isNoble <= 0.5\ngini = 0.48\nsamples = 5\nvalue = [3, 2]"] ;
258 -> 259 ;
260 [label="gini = 0.5\nsamples = 4\nvalue = [2, 2]"] ;
259 -> 260 ;
261 [label="gini = 0.0\nsamples = 1\nvalue = [1, 0]"] ;
259 -> 261 ;
262 [label="gini = 0.0\nsamples = 2\nvalue = [0, 2]"] ;
258 -> 262 ;
263 [label="isNoble <= 0.5\ngini = 0.1172\nsamples = 16\nvalue = [1, 15]"] ;
257 -> 263 ;
264 [label="gini = 0.0\nsamples = 13\nvalue = [0, 13]"] ;
263 -> 264 ;
265 [label="popularity <= 0.0368\ngini = 0.4444\nsamples = 3\nvalue = [1, 2]"] ;
263 -> 265 ;
266 [label="gini = 0.0\nsamples = 2\nvalue = [0, 2]"] ;
265 -> 266 ;
267 [label="gini = 0.0\nsamples = 1\nvalue = [1, 0]"] ;
265 -> 267 ;
268 [label="male <= 0.5\ngini = 0.4938\nsamples = 27\nvalue = [15, 12]"] ;
256 -> 268 ;
269 [label="popularity <= 0.0452\ngini = 0.2188\nsamples = 8\nvalue = [7, 1]"] ;
268 -> 269 ;
270 [label="gini = 0.375\nsamples = 4\nvalue = [3, 1]"] ;
269 -> 270 ;
271 [label="gini = 0.0\nsamples = 4\nvalue = [4, 0]"] ;
269 -> 271 ;
272 [label="isNoble <= 0.5\ngini = 0.4875\nsamples = 19\nvalue = [8, 11]"] ;
268 -> 272 ;
273 [label="popularity <= 0.0719\ngini = 0.5\nsamples = 16\nvalue = [8, 8]"] ;
272 -> 273 ;
274 [label="gini = 0.4898\nsamples = 14\nvalue = [6, 8]"] ;
273 -> 274 ;
275 [label="gini = 0.0\nsamples = 2\nvalue = [2, 0]"] ;
273 -> 275 ;
276 [label="gini = 0.0\nsamples = 3\nvalue = [0, 3]"] ;
272 -> 276 ;
277 [label="male <= 0.5\ngini = 0.142\nsamples = 13\nvalue = [1, 12]"] ;
255 -> 277 ;
278 [label="isNoble <= 0.5\ngini = 0.32\nsamples = 5\nvalue = [1, 4]"] ;
277 -> 278 ;
279 [label="gini = 0.0\nsamples = 3\nvalue = [0, 3]"] ;
278 -> 279 ;
280 [label="popularity <= 0.092\ngini = 0.5\nsamples = 2\nvalue = [1, 1]"] ;
278 -> 280 ;
281 [label="gini = 0.0\nsamples = 1\nvalue = [0, 1]"] ;
280 -> 281 ;
282 [label="gini = 0.0\nsamples = 1\nvalue = [1, 0]"] ;
280 -> 282 ;
283 [label="gini = 0.0\nsamples = 8\nvalue = [0, 8]"] ;
277 -> 283 ;
284 [label="isNoble <= 0.5\ngini = 0.3967\nsamples = 11\nvalue = [8, 3]"] ;
254 -> 284 ;
285 [label="popularity <= 0.0786\ngini = 0.2449\nsamples = 7\nvalue = [6, 1]"] ;
284 -> 285 ;
286 [label="gini = 0.0\nsamples = 5\nvalue = [5, 0]"] ;
285 -> 286 ;
287 [label="book3 <= 0.5\ngini = 0.5\nsamples = 2\nvalue = [1, 1]"] ;
285 -> 287 ;
288 [label="gini = 0.0\nsamples = 1\nvalue = [0, 1]"] ;
287 -> 288 ;
289 [label="gini = 0.0\nsamples = 1\nvalue = [1, 0]"] ;
287 -> 289 ;
290 [label="popularity <= 0.0569\ngini = 0.5\nsamples = 4\nvalue = [2, 2]"] ;
284 -> 290 ;
291 [label="gini = 0.0\nsamples = 2\nvalue = [0, 2]"] ;
290 -> 291 ;
292 [label="gini = 0.0\nsamples = 2\nvalue = [2, 0]"] ;
290 -> 292 ;
293 [label="gini = 0.0\nsamples = 6\nvalue = [6, 0]"] ;
181 -> 293 ;
294 [label="isMarried <= 0.5\ngini = 0.375\nsamples = 64\nvalue = [48, 16]"] ;
180 -> 294 ;
295 [label="popularity <= 0.0418\ngini = 0.32\nsamples = 60\nvalue = [48, 12]"] ;
294 -> 295 ;
296 [label="book3 <= 0.5\ngini = 0.4537\nsamples = 23\nvalue = [15, 8]"] ;
295 -> 296 ;
297 [label="isNoble <= 0.5\ngini = 0.3457\nsamples = 18\nvalue = [14, 4]"] ;
296 -> 297 ;
298 [label="book2 <= 0.5\ngini = 0.2907\nsamples = 17\nvalue = [14, 3]"] ;
297 -> 298 ;
299 [label="gini = 0.0\nsamples = 9\nvalue = [9, 0]"] ;
298 -> 299 ;
300 [label="male <= 0.5\ngini = 0.4688\nsamples = 8\nvalue = [5, 3]"] ;
298 -> 300 ;
301 [label="gini = 0.0\nsamples = 3\nvalue = [3, 0]"] ;
300 -> 301 ;
302 [label="popularity <= 0.0351\ngini = 0.48\nsamples = 5\nvalue = [2, 3]"] ;
300 -> 302 ;
303 [label="popularity <= 0.0318\ngini = 0.5\nsamples = 4\nvalue = [2, 2]"] ;
302 -> 303 ;
304 [label="gini = 0.5\nsamples = 2\nvalue = [1, 1]"] ;
303 -> 304 ;
305 [label="gini = 0.5\nsamples = 2\nvalue = [1, 1]"] ;
303 -> 305 ;
306 [label="gini = 0.0\nsamples = 1\nvalue = [0, 1]"] ;
302 -> 306 ;
307 [label="gini = 0.0\nsamples = 1\nvalue = [0, 1]"] ;
297 -> 307 ;
308 [label="popularity <= 0.0301\ngini = 0.32\nsamples = 5\nvalue = [1, 4]"] ;
296 -> 308 ;
309 [label="book2 <= 0.5\ngini = 0.5\nsamples = 2\nvalue = [1, 1]"] ;
308 -> 309 ;
310 [label="gini = 0.0\nsamples = 1\nvalue = [0, 1]"] ;
309 -> 310 ;
311 [label="gini = 0.0\nsamples = 1\nvalue = [1, 0]"] ;
309 -> 311 ;
312 [label="gini = 0.0\nsamples = 3\nvalue = [0, 3]"] ;
308 -> 312 ;
313 [label="popularity <= 0.0769\ngini = 0.1928\nsamples = 37\nvalue = [33, 4]"] ;
295 -> 313 ;
314 [label="popularity <= 0.0702\ngini = 0.2873\nsamples = 23\nvalue = [19, 4]"] ;
313 -> 314 ;
315 [label="book2 <= 0.5\ngini = 0.18\nsamples = 20\nvalue = [18, 2]"] ;
314 -> 315 ;
316 [label="popularity <= 0.0585\ngini = 0.375\nsamples = 8\nvalue = [6, 2]"] ;
315 -> 316 ;
317 [label="gini = 0.0\nsamples = 3\nvalue = [3, 0]"] ;
316 -> 317 ;
318 [label="popularity <= 0.0619\ngini = 0.48\nsamples = 5\nvalue = [3, 2]"] ;
316 -> 318 ;
319 [label="gini = 0.0\nsamples = 2\nvalue = [0, 2]"] ;
318 -> 319 ;
320 [label="gini = 0.0\nsamples = 3\nvalue = [3, 0]"] ;
318 -> 320 ;
321 [label="gini = 0.0\nsamples = 12\nvalue = [12, 0]"] ;
315 -> 321 ;
322 [label="isNoble <= 0.5\ngini = 0.4444\nsamples = 3\nvalue = [1, 2]"] ;
314 -> 322 ;
323 [label="book5 <= 0.5\ngini = 0.5\nsamples = 2\nvalue = [1, 1]"] ;
322 -> 323 ;
324 [label="gini = 0.0\nsamples = 1\nvalue = [0, 1]"] ;
323 -> 324 ;
325 [label="gini = 0.0\nsamples = 1\nvalue = [1, 0]"] ;
323 -> 325 ;
326 [label="gini = 0.0\nsamples = 1\nvalue = [0, 1]"] ;
322 -> 326 ;
327 [label="gini = 0.0\nsamples = 14\nvalue = [14, 0]"] ;
313 -> 327 ;
328 [label="gini = 0.0\nsamples = 4\nvalue = [0, 4]"] ;
294 -> 328 ;
329 [label="popularity <= 0.7074\ngini = 0.2417\nsamples = 64\nvalue = [55, 9]"] ;
179 -> 329 ;
330 [label="numDeadRelations <= 0.5\ngini = 0.1709\nsamples = 53\nvalue = [48, 5]"] ;
329 -> 330 ;
331 [label="popularity <= 0.2575\ngini = 0.2854\nsamples = 29\nvalue = [24, 5]"] ;
330 -> 331 ;
332 [label="popularity <= 0.2308\ngini = 0.4688\nsamples = 8\nvalue = [5, 3]"] ;
331 -> 332 ;
333 [label="gini = 0.0\nsamples = 3\nvalue = [3, 0]"] ;
332 -> 333 ;
334 [label="popularity <= 0.2408\ngini = 0.48\nsamples = 5\nvalue = [2, 3]"] ;
332 -> 334 ;
335 [label="gini = 0.0\nsamples = 2\nvalue = [0, 2]"] ;
334 -> 335 ;
336 [label="popularity <= 0.2525\ngini = 0.4444\nsamples = 3\nvalue = [2, 1]"] ;
334 -> 336 ;
337 [label="gini = 0.0\nsamples = 2\nvalue = [2, 0]"] ;
336 -> 337 ;
338 [label="gini = 0.0\nsamples = 1\nvalue = [0, 1]"] ;
336 -> 338 ;
339 [label="popularity <= 0.3562\ngini = 0.1723\nsamples = 21\nvalue = [19, 2]"] ;
331 -> 339 ;
340 [label="gini = 0.0\nsamples = 11\nvalue = [11, 0]"] ;
339 -> 340 ;
341 [label="popularity <= 0.3645\ngini = 0.32\nsamples = 10\nvalue = [8, 2]"] ;
339 -> 341 ;
342 [label="gini = 0.0\nsamples = 1\nvalue = [0, 1]"] ;
341 -> 342 ;
343 [label="isNoble <= 0.5\ngini = 0.1975\nsamples = 9\nvalue = [8, 1]"] ;
341 -> 343 ;
344 [label="popularity <= 0.4699\ngini = 0.4444\nsamples = 3\nvalue = [2, 1]"] ;
343 -> 344 ;
345 [label="gini = 0.0\nsamples = 1\nvalue = [0, 1]"] ;
344 -> 345 ;
346 [label="gini = 0.0\nsamples = 2\nvalue = [2, 0]"] ;
344 -> 346 ;
347 [label="gini = 0.0\nsamples = 6\nvalue = [6, 0]"] ;
343 -> 347 ;
348 [label="gini = 0.0\nsamples = 24\nvalue = [24, 0]"] ;
330 -> 348 ;
349 [label="numDeadRelations <= 5.5\ngini = 0.4628\nsamples = 11\nvalue = [7, 4]"] ;
329 -> 349 ;
350 [label="numDeadRelations <= 2.0\ngini = 0.4444\nsamples = 6\nvalue = [2, 4]"] ;
349 -> 350 ;
351 [label="gini = 0.0\nsamples = 1\nvalue = [0, 1]"] ;
350 -> 351 ;
352 [label="numDeadRelations <= 4.5\ngini = 0.48\nsamples = 5\nvalue = [2, 3]"] ;
350 -> 352 ;
353 [label="popularity <= 0.8696\ngini = 0.4444\nsamples = 3\nvalue = [1, 2]"] ;
352 -> 353 ;
354 [label="gini = 0.5\nsamples = 2\nvalue = [1, 1]"] ;
353 -> 354 ;
355 [label="gini = 0.0\nsamples = 1\nvalue = [0, 1]"] ;
353 -> 355 ;
356 [label="gini = 0.5\nsamples = 2\nvalue = [1, 1]"] ;
352 -> 356 ;
357 [label="gini = 0.0\nsamples = 5\nvalue = [5, 0]"] ;
349 -> 357 ;
358 [label="popularity <= 0.0619\ngini = 0.2649\nsamples = 1152\nvalue = [181, 971]"] ;
0 -> 358 [labeldistance=2.5, labelangle=-45, headlabel="False"] ;
359 [label="popularity <= 0.0217\ngini = 0.1526\nsamples = 649\nvalue = [54, 595]"] ;
358 -> 359 ;
360 [label="book3 <= 0.5\ngini = 0.0613\nsamples = 316\nvalue = [10, 306]"] ;
359 -> 360 ;
361 [label="popularity <= 0.0017\ngini = 0.033\nsamples = 238\nvalue = [4, 234]"] ;
360 -> 361 ;
362 [label="male <= 0.5\ngini = 0.2778\nsamples = 6\nvalue = [1, 5]"] ;
361 -> 362 ;
363 [label="isNoble <= 0.5\ngini = 0.375\nsamples = 4\nvalue = [1, 3]"] ;
362 -> 363 ;
364 [label="gini = 0.4444\nsamples = 3\nvalue = [1, 2]"] ;
363 -> 364 ;
365 [label="gini = 0.0\nsamples = 1\nvalue = [0, 1]"] ;
363 -> 365 ;
366 [label="gini = 0.0\nsamples = 2\nvalue = [0, 2]"] ;
362 -> 366 ;
367 [label="isNoble <= 0.5\ngini = 0.0255\nsamples = 232\nvalue = [3, 229]"] ;
361 -> 367 ;
368 [label="gini = 0.0\nsamples = 127\nvalue = [0, 127]"] ;
367 -> 368 ;
369 [label="popularity <= 0.0117\ngini = 0.0555\nsamples = 105\nvalue = [3, 102]"] ;
367 -> 369 ;
370 [label="gini = 0.0\nsamples = 54\nvalue = [0, 54]"] ;
369 -> 370 ;
371 [label="book5 <= 0.5\ngini = 0.1107\nsamples = 51\nvalue = [3, 48]"] ;
369 -> 371 ;
372 [label="popularity <= 0.0184\ngini = 0.1975\nsamples = 27\nvalue = [3, 24]"] ;
371 -> 372 ;
373 [label="isMarried <= 0.5\ngini = 0.2188\nsamples = 24\nvalue = [3, 21]"] ;
372 -> 373 ;
374 [label="male <= 0.5\ngini = 0.2268\nsamples = 23\nvalue = [3, 20]"] ;
373 -> 374 ;
375 [label="popularity <= 0.0151\ngini = 0.18\nsamples = 10\nvalue = [1, 9]"] ;
374 -> 375 ;
376 [label="gini = 0.0\nsamples = 5\nvalue = [0, 5]"] ;
375 -> 376 ;
377 [label="gini = 0.32\nsamples = 5\nvalue = [1, 4]"] ;
375 -> 377 ;
378 [label="popularity <= 0.0151\ngini = 0.2604\nsamples = 13\nvalue = [2, 11]"] ;
374 -> 378 ;
379 [label="gini = 0.3457\nsamples = 9\nvalue = [2, 7]"] ;
378 -> 379 ;
380 [label="gini = 0.0\nsamples = 4\nvalue = [0, 4]"] ;
378 -> 380 ;
381 [label="gini = 0.0\nsamples = 1\nvalue = [0, 1]"] ;
373 -> 381 ;
382 [label="gini = 0.0\nsamples = 3\nvalue = [0, 3]"] ;
372 -> 382 ;
383 [label="gini = 0.0\nsamples = 24\nvalue = [0, 24]"] ;
371 -> 383 ;
384 [label="book5 <= 0.5\ngini = 0.142\nsamples = 78\nvalue = [6, 72]"] ;
360 -> 384 ;
385 [label="male <= 0.5\ngini = 0.0416\nsamples = 47\nvalue = [1, 46]"] ;
384 -> 385 ;
386 [label="popularity <= 0.0151\ngini = 0.074\nsamples = 26\nvalue = [1, 25]"] ;
385 -> 386 ;
387 [label="popularity <= 0.0117\ngini = 0.1528\nsamples = 12\nvalue = [1, 11]"] ;
386 -> 387 ;
388 [label="gini = 0.0\nsamples = 4\nvalue = [0, 4]"] ;
387 -> 388 ;
389 [label="book2 <= 0.5\ngini = 0.2188\nsamples = 8\nvalue = [1, 7]"] ;
387 -> 389 ;
390 [label="gini = 0.2778\nsamples = 6\nvalue = [1, 5]"] ;
389 -> 390 ;
391 [label="gini = 0.0\nsamples = 2\nvalue = [0, 2]"] ;
389 -> 391 ;
392 [label="gini = 0.0\nsamples = 14\nvalue = [0, 14]"] ;
386 -> 392 ;
393 [label="gini = 0.0\nsamples = 21\nvalue = [0, 21]"] ;
385 -> 393 ;
394 [label="isNoble <= 0.5\ngini = 0.2706\nsamples = 31\nvalue = [5, 26]"] ;
384 -> 394 ;
395 [label="popularity <= 0.0184\ngini = 0.3512\nsamples = 22\nvalue = [5, 17]"] ;
394 -> 395 ;
396 [label="male <= 0.5\ngini = 0.2188\nsamples = 16\nvalue = [2, 14]"] ;
395 -> 396 ;
397 [label="popularity <= 0.0117\ngini = 0.375\nsamples = 8\nvalue = [2, 6]"] ;
396 -> 397 ;
398 [label="gini = 0.0\nsamples = 1\nvalue = [0, 1]"] ;
397 -> 398 ;
399 [label="popularity <= 0.0151\ngini = 0.4082\nsamples = 7\nvalue = [2, 5]"] ;
397 -> 399 ;
400 [label="book2 <= 0.5\ngini = 0.4444\nsamples = 3\nvalue = [1, 2]"] ;
399 -> 400 ;
401 [label="gini = 0.0\nsamples = 1\nvalue = [0, 1]"] ;
400 -> 401 ;
402 [label="gini = 0.5\nsamples = 2\nvalue = [1, 1]"] ;
400 -> 402 ;
403 [label="book2 <= 0.5\ngini = 0.375\nsamples = 4\nvalue = [1, 3]"] ;
399 -> 403 ;
404 [label="gini = 0.4444\nsamples = 3\nvalue = [1, 2]"] ;
403 -> 404 ;
405 [label="gini = 0.0\nsamples = 1\nvalue = [0, 1]"] ;
403 -> 405 ;
406 [label="gini = 0.0\nsamples = 8\nvalue = [0, 8]"] ;
396 -> 406 ;
407 [label="book2 <= 0.5\ngini = 0.5\nsamples = 6\nvalue = [3, 3]"] ;
395 -> 407 ;
408 [label="male <= 0.5\ngini = 0.375\nsamples = 4\nvalue = [3, 1]"] ;
407 -> 408 ;
409 [label="gini = 0.0\nsamples = 2\nvalue = [2, 0]"] ;
408 -> 409 ;
410 [label="gini = 0.5\nsamples = 2\nvalue = [1, 1]"] ;
408 -> 410 ;
411 [label="gini = 0.0\nsamples = 2\nvalue = [0, 2]"] ;
407 -> 411 ;
412 [label="gini = 0.0\nsamples = 9\nvalue = [0, 9]"] ;
394 -> 412 ;
413 [label="isMarried <= 0.5\ngini = 0.2293\nsamples = 333\nvalue = [44, 289]"] ;
359 -> 413 ;
414 [label="popularity <= 0.0284\ngini = 0.251\nsamples = 299\nvalue = [44, 255]"] ;
413 -> 414 ;
415 [label="isNoble <= 0.5\ngini = 0.1738\nsamples = 104\nvalue = [10, 94]"] ;
414 -> 415 ;
416 [label="book5 <= 0.5\ngini = 0.2778\nsamples = 42\nvalue = [7, 35]"] ;
415 -> 416 ;
417 [label="gini = 0.0\nsamples = 20\nvalue = [0, 20]"] ;
416 -> 417 ;
418 [label="male <= 0.5\ngini = 0.4339\nsamples = 22\nvalue = [7, 15]"] ;
416 -> 418 ;
419 [label="popularity <= 0.0251\ngini = 0.1653\nsamples = 11\nvalue = [1, 10]"] ;
418 -> 419 ;
420 [label="book3 <= 0.5\ngini = 0.2449\nsamples = 7\nvalue = [1, 6]"] ;
419 -> 420 ;
421 [label="gini = 0.0\nsamples = 2\nvalue = [0, 2]"] ;
420 -> 421 ;
422 [label="book1 <= 0.5\ngini = 0.32\nsamples = 5\nvalue = [1, 4]"] ;
420 -> 422 ;
423 [label="gini = 0.375\nsamples = 4\nvalue = [1, 3]"] ;
422 -> 423 ;
424 [label="gini = 0.0\nsamples = 1\nvalue = [0, 1]"] ;
422 -> 424 ;
425 [label="gini = 0.0\nsamples = 4\nvalue = [0, 4]"] ;
419 -> 425 ;
426 [label="book2 <= 0.5\ngini = 0.4959\nsamples = 11\nvalue = [6, 5]"] ;
418 -> 426 ;
427 [label="book3 <= 0.5\ngini = 0.4444\nsamples = 9\nvalue = [6, 3]"] ;
426 -> 427 ;
428 [label="gini = 0.4444\nsamples = 3\nvalue = [1, 2]"] ;
427 -> 428 ;
429 [label="popularity <= 0.0251\ngini = 0.2778\nsamples = 6\nvalue = [5, 1]"] ;
427 -> 429 ;
430 [label="gini = 0.0\nsamples = 1\nvalue = [1, 0]"] ;
429 -> 430 ;
431 [label="gini = 0.32\nsamples = 5\nvalue = [4, 1]"] ;
429 -> 431 ;
432 [label="gini = 0.0\nsamples = 2\nvalue = [0, 2]"] ;
426 -> 432 ;
433 [label="book5 <= 0.5\ngini = 0.0921\nsamples = 62\nvalue = [3, 59]"] ;
415 -> 433 ;
434 [label="book3 <= 0.5\ngini = 0.2041\nsamples = 26\nvalue = [3, 23]"] ;
433 -> 434 ;
435 [label="popularity <= 0.0251\ngini = 0.3457\nsamples = 9\nvalue = [2, 7]"] ;
434 -> 435 ;
436 [label="male <= 0.5\ngini = 0.5\nsamples = 4\nvalue = [2, 2]"] ;
435 -> 436 ;
437 [label="gini = 0.5\nsamples = 2\nvalue = [1, 1]"] ;
436 -> 437 ;
438 [label="gini = 0.5\nsamples = 2\nvalue = [1, 1]"] ;
436 -> 438 ;
439 [label="gini = 0.0\nsamples = 5\nvalue = [0, 5]"] ;
435 -> 439 ;
440 [label="popularity <= 0.0251\ngini = 0.1107\nsamples = 17\nvalue = [1, 16]"] ;
434 -> 440 ;
441 [label="gini = 0.0\nsamples = 7\nvalue = [0, 7]"] ;
440 -> 441 ;
442 [label="male <= 0.5\ngini = 0.18\nsamples = 10\nvalue = [1, 9]"] ;
440 -> 442 ;
443 [label="gini = 0.0\nsamples = 1\nvalue = [0, 1]"] ;
442 -> 443 ;
444 [label="gini = 0.1975\nsamples = 9\nvalue = [1, 8]"] ;
442 -> 444 ;
445 [label="gini = 0.0\nsamples = 36\nvalue = [0, 36]"] ;
433 -> 445 ;
446 [label="book1 <= 0.5\ngini = 0.2879\nsamples = 195\nvalue = [34, 161]"] ;
414 -> 446 ;
447 [label="popularity <= 0.0351\ngini = 0.2711\nsamples = 167\nvalue = [27, 140]"] ;
446 -> 447 ;
448 [label="isNoble <= 0.5\ngini = 0.3389\nsamples = 37\nvalue = [8, 29]"] ;
447 -> 448 ;
449 [label="book3 <= 0.5\ngini = 0.4321\nsamples = 19\nvalue = [6, 13]"] ;
448 -> 449 ;
450 [label="male <= 0.5\ngini = 0.32\nsamples = 10\nvalue = [2, 8]"] ;
449 -> 450 ;
451 [label="gini = 0.0\nsamples = 4\nvalue = [0, 4]"] ;
450 -> 451 ;
452 [label="book5 <= 0.5\ngini = 0.4444\nsamples = 6\nvalue = [2, 4]"] ;
450 -> 452 ;
453 [label="popularity <= 0.0318\ngini = 0.5\nsamples = 4\nvalue = [2, 2]"] ;
452 -> 453 ;
454 [label="gini = 0.4444\nsamples = 3\nvalue = [1, 2]"] ;
453 -> 454 ;
455 [label="gini = 0.0\nsamples = 1\nvalue = [1, 0]"] ;
453 -> 455 ;
456 [label="gini = 0.0\nsamples = 2\nvalue = [0, 2]"] ;
452 -> 456 ;
457 [label="book5 <= 0.5\ngini = 0.4938\nsamples = 9\nvalue = [4, 5]"] ;
449 -> 457 ;
458 [label="male <= 0.5\ngini = 0.4444\nsamples = 3\nvalue = [1, 2]"] ;
457 -> 458 ;
459 [label="popularity <= 0.0318\ngini = 0.5\nsamples = 2\nvalue = [1, 1]"] ;
458 -> 459 ;
460 [label="gini = 0.0\nsamples = 1\nvalue = [1, 0]"] ;
459 -> 460 ;
461 [label="gini = 0.0\nsamples = 1\nvalue = [0, 1]"] ;
459 -> 461 ;
462 [label="gini = 0.0\nsamples = 1\nvalue = [0, 1]"] ;
458 -> 462 ;
463 [label="book2 <= 0.5\ngini = 0.5\nsamples = 6\nvalue = [3, 3]"] ;
457 -> 463 ;
464 [label="popularity <= 0.0318\ngini = 0.5\nsamples = 4\nvalue = [2, 2]"] ;
463 -> 464 ;
465 [label="gini = 0.5\nsamples = 2\nvalue = [1, 1]"] ;
464 -> 465 ;
466 [label="gini = 0.5\nsamples = 2\nvalue = [1, 1]"] ;
464 -> 466 ;
467 [label="gini = 0.5\nsamples = 2\nvalue = [1, 1]"] ;
463 -> 467 ;
468 [label="book3 <= 0.5\ngini = 0.1975\nsamples = 18\nvalue = [2, 16]"] ;
448 -> 468 ;
469 [label="popularity <= 0.0318\ngini = 0.375\nsamples = 8\nvalue = [2, 6]"] ;
468 -> 469 ;
470 [label="male <= 0.5\ngini = 0.4444\nsamples = 6\nvalue = [2, 4]"] ;
469 -> 470 ;
471 [label="gini = 0.0\nsamples = 1\nvalue = [0, 1]"] ;
470 -> 471 ;
472 [label="gini = 0.48\nsamples = 5\nvalue = [2, 3]"] ;
470 -> 472 ;
473 [label="gini = 0.0\nsamples = 2\nvalue = [0, 2]"] ;
469 -> 473 ;
474 [label="gini = 0.0\nsamples = 10\nvalue = [0, 10]"] ;
468 -> 474 ;
475 [label="book3 <= 0.5\ngini = 0.2496\nsamples = 130\nvalue = [19, 111]"] ;
447 -> 475 ;
476 [label="book2 <= 0.5\ngini = 0.1833\nsamples = 49\nvalue = [5, 44]"] ;
475 -> 476 ;
477 [label="popularity <= 0.0452\ngini = 0.1557\nsamples = 47\nvalue = [4, 43]"] ;
476 -> 477 ;
478 [label="gini = 0.0\nsamples = 18\nvalue = [0, 18]"] ;
477 -> 478 ;
479 [label="male <= 0.5\ngini = 0.2378\nsamples = 29\nvalue = [4, 25]"] ;
477 -> 479 ;
480 [label="popularity <= 0.0585\ngini = 0.4444\nsamples = 6\nvalue = [2, 4]"] ;
479 -> 480 ;
481 [label="gini = 0.32\nsamples = 5\nvalue = [1, 4]"] ;
480 -> 481 ;
482 [label="gini = 0.0\nsamples = 1\nvalue = [1, 0]"] ;
480 -> 482 ;
483 [label="isNoble <= 0.5\ngini = 0.1588\nsamples = 23\nvalue = [2, 21]"] ;
479 -> 483 ;
484 [label="gini = 0.0\nsamples = 16\nvalue = [0, 16]"] ;
483 -> 484 ;
485 [label="gini = 0.4082\nsamples = 7\nvalue = [2, 5]"] ;
483 -> 485 ;
486 [label="popularity <= 0.0435\ngini = 0.5\nsamples = 2\nvalue = [1, 1]"] ;
476 -> 486 ;
487 [label="gini = 0.0\nsamples = 1\nvalue = [0, 1]"] ;
486 -> 487 ;
488 [label="gini = 0.0\nsamples = 1\nvalue = [1, 0]"] ;
486 -> 488 ;
489 [label="numDeadRelations <= 0.5\ngini = 0.2859\nsamples = 81\nvalue = [14, 67]"] ;
475 -> 489 ;
490 [label="book2 <= 0.5\ngini = 0.2722\nsamples = 80\nvalue = [13, 67]"] ;
489 -> 490 ;
491 [label="isNoble <= 0.5\ngini = 0.3527\nsamples = 35\nvalue = [8, 27]"] ;
490 -> 491 ;
492 [label="popularity <= 0.0452\ngini = 0.4444\nsamples = 21\nvalue = [7, 14]"] ;
491 -> 492 ;
493 [label="gini = 0.375\nsamples = 12\nvalue = [3, 9]"] ;
492 -> 493 ;
494 [label="gini = 0.4938\nsamples = 9\nvalue = [4, 5]"] ;
492 -> 494 ;
495 [label="popularity <= 0.0418\ngini = 0.1327\nsamples = 14\nvalue = [1, 13]"] ;
491 -> 495 ;
496 [label="gini = 0.375\nsamples = 4\nvalue = [1, 3]"] ;
495 -> 496 ;
497 [label="gini = 0.0\nsamples = 10\nvalue = [0, 10]"] ;
495 -> 497 ;
498 [label="book5 <= 0.5\ngini = 0.1975\nsamples = 45\nvalue = [5, 40]"] ;
490 -> 498 ;
499 [label="popularity <= 0.0435\ngini = 0.355\nsamples = 13\nvalue = [3, 10]"] ;
498 -> 499 ;
500 [label="gini = 0.0\nsamples = 2\nvalue = [2, 0]"] ;
499 -> 500 ;
501 [label="gini = 0.1653\nsamples = 11\nvalue = [1, 10]"] ;
499 -> 501 ;
502 [label="isNoble <= 0.5\ngini = 0.1172\nsamples = 32\nvalue = [2, 30]"] ;
498 -> 502 ;
503 [label="gini = 0.1884\nsamples = 19\nvalue = [2, 17]"] ;
502 -> 503 ;
504 [label="gini = 0.0\nsamples = 13\nvalue = [0, 13]"] ;
502 -> 504 ;
505 [label="gini = 0.0\nsamples = 1\nvalue = [1, 0]"] ;
489 -> 505 ;
506 [label="book5 <= 0.5\ngini = 0.375\nsamples = 28\nvalue = [7, 21]"] ;
446 -> 506 ;
507 [label="popularity <= 0.0351\ngini = 0.32\nsamples = 5\nvalue = [4, 1]"] ;
506 -> 507 ;
508 [label="gini = 0.0\nsamples = 1\nvalue = [0, 1]"] ;
507 -> 508 ;
509 [label="gini = 0.0\nsamples = 4\nvalue = [4, 0]"] ;
507 -> 509 ;
510 [label="popularity <= 0.0452\ngini = 0.2268\nsamples = 23\nvalue = [3, 20]"] ;
506 -> 510 ;
511 [label="gini = 0.0\nsamples = 16\nvalue = [0, 16]"] ;
510 -> 511 ;
512 [label="popularity <= 0.0585\ngini = 0.4898\nsamples = 7\nvalue = [3, 4]"] ;
510 -> 512 ;
513 [label="isNoble <= 0.5\ngini = 0.375\nsamples = 4\nvalue = [3, 1]"] ;
512 -> 513 ;
514 [label="book3 <= 0.5\ngini = 0.5\nsamples = 2\nvalue = [1, 1]"] ;
513 -> 514 ;
515 [label="gini = 0.0\nsamples = 1\nvalue = [1, 0]"] ;
514 -> 515 ;
516 [label="gini = 0.0\nsamples = 1\nvalue = [0, 1]"] ;
514 -> 516 ;
517 [label="gini = 0.0\nsamples = 2\nvalue = [2, 0]"] ;
513 -> 517 ;
518 [label="gini = 0.0\nsamples = 3\nvalue = [0, 3]"] ;
512 -> 518 ;
519 [label="gini = 0.0\nsamples = 34\nvalue = [0, 34]"] ;
413 -> 519 ;
520 [label="male <= 0.5\ngini = 0.3775\nsamples = 503\nvalue = [127, 376]"] ;
358 -> 520 ;
521 [label="numDeadRelations <= 4.5\ngini = 0.2005\nsamples = 177\nvalue = [20, 157]"] ;
520 -> 521 ;
522 [label="book5 <= 0.5\ngini = 0.1635\nsamples = 167\nvalue = [15, 152]"] ;
521 -> 522 ;
523 [label="popularity <= 0.2525\ngini = 0.0506\nsamples = 77\nvalue = [2, 75]"] ;
522 -> 523 ;
524 [label="isNoble <= 0.5\ngini = 0.0263\nsamples = 75\nvalue = [1, 74]"] ;
523 -> 524 ;
525 [label="gini = 0.0\nsamples = 60\nvalue = [0, 60]"] ;
524 -> 525 ;
526 [label="popularity <= 0.0853\ngini = 0.1244\nsamples = 15\nvalue = [1, 14]"] ;
524 -> 526 ;
527 [label="popularity <= 0.0803\ngini = 0.2778\nsamples = 6\nvalue = [1, 5]"] ;
526 -> 527 ;
528 [label="gini = 0.0\nsamples = 4\nvalue = [0, 4]"] ;
527 -> 528 ;
529 [label="book2 <= 0.5\ngini = 0.5\nsamples = 2\nvalue = [1, 1]"] ;
527 -> 529 ;
530 [label="gini = 0.0\nsamples = 1\nvalue = [1, 0]"] ;
529 -> 530 ;
531 [label="gini = 0.0\nsamples = 1\nvalue = [0, 1]"] ;
529 -> 531 ;
532 [label="gini = 0.0\nsamples = 9\nvalue = [0, 9]"] ;
526 -> 532 ;
533 [label="isMarried <= 0.5\ngini = 0.5\nsamples = 2\nvalue = [1, 1]"] ;
523 -> 533 ;
534 [label="gini = 0.0\nsamples = 1\nvalue = [1, 0]"] ;
533 -> 534 ;
535 [label="gini = 0.0\nsamples = 1\nvalue = [0, 1]"] ;
533 -> 535 ;
536 [label="popularity <= 0.1237\ngini = 0.2472\nsamples = 90\nvalue = [13, 77]"] ;
522 -> 536 ;
537 [label="popularity <= 0.0753\ngini = 0.335\nsamples = 47\nvalue = [10, 37]"] ;
536 -> 537 ;
538 [label="isNoble <= 0.5\ngini = 0.1107\nsamples = 17\nvalue = [1, 16]"] ;
537 -> 538 ;
539 [label="gini = 0.0\nsamples = 9\nvalue = [0, 9]"] ;
538 -> 539 ;
540 [label="isMarried <= 0.5\ngini = 0.2188\nsamples = 8\nvalue = [1, 7]"] ;
538 -> 540 ;
541 [label="gini = 0.0\nsamples = 3\nvalue = [0, 3]"] ;
540 -> 541 ;
542 [label="popularity <= 0.0652\ngini = 0.32\nsamples = 5\nvalue = [1, 4]"] ;
540 -> 542 ;
543 [label="gini = 0.0\nsamples = 3\nvalue = [0, 3]"] ;
542 -> 543 ;
544 [label="popularity <= 0.0686\ngini = 0.5\nsamples = 2\nvalue = [1, 1]"] ;
542 -> 544 ;
545 [label="gini = 0.0\nsamples = 1\nvalue = [1, 0]"] ;
544 -> 545 ;
546 [label="gini = 0.0\nsamples = 1\nvalue = [0, 1]"] ;
544 -> 546 ;
547 [label="isMarried <= 0.5\ngini = 0.42\nsamples = 30\nvalue = [9, 21]"] ;
537 -> 547 ;
548 [label="popularity <= 0.1087\ngini = 0.3628\nsamples = 21\nvalue = [5, 16]"] ;
547 -> 548 ;
549 [label="popularity <= 0.0886\ngini = 0.2188\nsamples = 16\nvalue = [2, 14]"] ;
548 -> 549 ;
550 [label="popularity <= 0.0819\ngini = 0.4082\nsamples = 7\nvalue = [2, 5]"] ;
549 -> 550 ;
551 [label="gini = 0.0\nsamples = 2\nvalue = [0, 2]"] ;
550 -> 551 ;
552 [label="isNoble <= 0.5\ngini = 0.48\nsamples = 5\nvalue = [2, 3]"] ;
550 -> 552 ;
553 [label="gini = 0.5\nsamples = 4\nvalue = [2, 2]"] ;
552 -> 553 ;
554 [label="gini = 0.0\nsamples = 1\nvalue = [0, 1]"] ;
552 -> 554 ;
555 [label="gini = 0.0\nsamples = 9\nvalue = [0, 9]"] ;
549 -> 555 ;
556 [label="popularity <= 0.1154\ngini = 0.48\nsamples = 5\nvalue = [3, 2]"] ;
548 -> 556 ;
557 [label="gini = 0.0\nsamples = 2\nvalue = [2, 0]"] ;
556 -> 557 ;
558 [label="book1 <= 0.5\ngini = 0.4444\nsamples = 3\nvalue = [1, 2]"] ;
556 -> 558 ;
559 [label="gini = 0.0\nsamples = 1\nvalue = [0, 1]"] ;
558 -> 559 ;
560 [label="gini = 0.5\nsamples = 2\nvalue = [1, 1]"] ;
558 -> 560 ;
561 [label="popularity <= 0.107\ngini = 0.4938\nsamples = 9\nvalue = [4, 5]"] ;
547 -> 561 ;
562 [label="popularity <= 0.0836\ngini = 0.32\nsamples = 5\nvalue = [4, 1]"] ;
561 -> 562 ;
563 [label="gini = 0.0\nsamples = 2\nvalue = [2, 0]"] ;
562 -> 563 ;
564 [label="popularity <= 0.092\ngini = 0.4444\nsamples = 3\nvalue = [2, 1]"] ;
562 -> 564 ;
565 [label="gini = 0.0\nsamples = 1\nvalue = [0, 1]"] ;
564 -> 565 ;
566 [label="gini = 0.0\nsamples = 2\nvalue = [2, 0]"] ;
564 -> 566 ;
567 [label="gini = 0.0\nsamples = 4\nvalue = [0, 4]"] ;
561 -> 567 ;
568 [label="book2 <= 0.5\ngini = 0.1298\nsamples = 43\nvalue = [3, 40]"] ;
536 -> 568 ;
569 [label="gini = 0.0\nsamples = 14\nvalue = [0, 14]"] ;
568 -> 569 ;
570 [label="popularity <= 0.1572\ngini = 0.1855\nsamples = 29\nvalue = [3, 26]"] ;
568 -> 570 ;
571 [label="popularity <= 0.1405\ngini = 0.3457\nsamples = 9\nvalue = [2, 7]"] ;
570 -> 571 ;
572 [label="gini = 0.0\nsamples = 6\nvalue = [0, 6]"] ;
571 -> 572 ;
573 [label="popularity <= 0.1488\ngini = 0.4444\nsamples = 3\nvalue = [2, 1]"] ;
571 -> 573 ;
574 [label="isNoble <= 0.5\ngini = 0.5\nsamples = 2\nvalue = [1, 1]"] ;
573 -> 574 ;
575 [label="gini = 0.0\nsamples = 1\nvalue = [0, 1]"] ;
574 -> 575 ;
576 [label="gini = 0.0\nsamples = 1\nvalue = [1, 0]"] ;
574 -> 576 ;
577 [label="gini = 0.0\nsamples = 1\nvalue = [1, 0]"] ;
573 -> 577 ;
578 [label="isMarried <= 0.5\ngini = 0.095\nsamples = 20\nvalue = [1, 19]"] ;
570 -> 578 ;
579 [label="popularity <= 0.2809\ngini = 0.2449\nsamples = 7\nvalue = [1, 6]"] ;
578 -> 579 ;
580 [label="gini = 0.0\nsamples = 4\nvalue = [0, 4]"] ;
579 -> 580 ;
581 [label="popularity <= 0.4314\ngini = 0.4444\nsamples = 3\nvalue = [1, 2]"] ;
579 -> 581 ;
582 [label="gini = 0.0\nsamples = 1\nvalue = [1, 0]"] ;
581 -> 582 ;
583 [label="gini = 0.0\nsamples = 2\nvalue = [0, 2]"] ;
581 -> 583 ;
584 [label="gini = 0.0\nsamples = 13\nvalue = [0, 13]"] ;
578 -> 584 ;
585 [label="popularity <= 0.5017\ngini = 0.5\nsamples = 10\nvalue = [5, 5]"] ;
521 -> 585 ;
586 [label="gini = 0.0\nsamples = 5\nvalue = [5, 0]"] ;
585 -> 586 ;
587 [label="gini = 0.0\nsamples = 5\nvalue = [0, 5]"] ;
585 -> 587 ;
588 [label="numDeadRelations <= 0.5\ngini = 0.441\nsamples = 326\nvalue = [107, 219]"] ;
520 -> 588 ;
589 [label="popularity <= 0.3361\ngini = 0.4197\nsamples = 267\nvalue = [80, 187]"] ;
588 -> 589 ;
590 [label="popularity <= 0.2809\ngini = 0.3988\nsamples = 240\nvalue = [66, 174]"] ;
589 -> 590 ;
591 [label="popularity <= 0.2759\ngini = 0.406\nsamples = 233\nvalue = [66, 167]"] ;
590 -> 591 ;
592 [label="isMarried <= 0.5\ngini = 0.4034\nsamples = 232\nvalue = [65, 167]"] ;
591 -> 592 ;
593 [label="book5 <= 0.5\ngini = 0.3805\nsamples = 180\nvalue = [46, 134]"] ;
592 -> 593 ;
594 [label="popularity <= 0.1639\ngini = 0.4367\nsamples = 59\nvalue = [19, 40]"] ;
593 -> 594 ;
595 [label="isNoble <= 0.5\ngini = 0.375\nsamples = 52\nvalue = [13, 39]"] ;
594 -> 595 ;
596 [label="book1 <= 0.5\ngini = 0.2637\nsamples = 32\nvalue = [5, 27]"] ;
595 -> 596 ;
597 [label="gini = 0.2311\nsamples = 30\nvalue = [4, 26]"] ;
596 -> 597 ;
598 [label="gini = 0.5\nsamples = 2\nvalue = [1, 1]"] ;
596 -> 598 ;
599 [label="popularity <= 0.0652\ngini = 0.48\nsamples = 20\nvalue = [8, 12]"] ;
595 -> 599 ;
600 [label="gini = 0.0\nsamples = 2\nvalue = [0, 2]"] ;
599 -> 600 ;
601 [label="gini = 0.4938\nsamples = 18\nvalue = [8, 10]"] ;
599 -> 601 ;
602 [label="popularity <= 0.2642\ngini = 0.2449\nsamples = 7\nvalue = [6, 1]"] ;
594 -> 602 ;
603 [label="gini = 0.0\nsamples = 6\nvalue = [6, 0]"] ;
602 -> 603 ;
604 [label="gini = 0.0\nsamples = 1\nvalue = [0, 1]"] ;
602 -> 604 ;
605 [label="isNoble <= 0.5\ngini = 0.3467\nsamples = 121\nvalue = [27, 94]"] ;
593 -> 605 ;
606 [label="book3 <= 0.5\ngini = 0.4617\nsamples = 47\nvalue = [17, 30]"] ;
605 -> 606 ;
607 [label="gini = 0.0\nsamples = 2\nvalue = [2, 0]"] ;
606 -> 607 ;
608 [label="popularity <= 0.0686\ngini = 0.4444\nsamples = 45\nvalue = [15, 30]"] ;
606 -> 608 ;
609 [label="gini = 0.0\nsamples = 5\nvalue = [0, 5]"] ;
608 -> 609 ;
610 [label="gini = 0.4688\nsamples = 40\nvalue = [15, 25]"] ;
608 -> 610 ;
611 [label="popularity <= 0.0719\ngini = 0.2337\nsamples = 74\nvalue = [10, 64]"] ;
605 -> 611 ;
612 [label="book2 <= 0.5\ngini = 0.426\nsamples = 13\nvalue = [4, 9]"] ;
611 -> 612 ;
613 [label="gini = 0.2449\nsamples = 7\nvalue = [1, 6]"] ;
612 -> 613 ;
614 [label="gini = 0.5\nsamples = 6\nvalue = [3, 3]"] ;
612 -> 614 ;
615 [label="popularity <= 0.097\ngini = 0.1774\nsamples = 61\nvalue = [6, 55]"] ;
611 -> 615 ;
616 [label="gini = 0.0\nsamples = 15\nvalue = [0, 15]"] ;
615 -> 616 ;
617 [label="gini = 0.2268\nsamples = 46\nvalue = [6, 40]"] ;
615 -> 617 ;
618 [label="book3 <= 0.5\ngini = 0.4638\nsamples = 52\nvalue = [19, 33]"] ;
592 -> 618 ;
619 [label="isNoble <= 0.5\ngini = 0.4082\nsamples = 7\nvalue = [5, 2]"] ;
618 -> 619 ;
620 [label="gini = 0.0\nsamples = 1\nvalue = [0, 1]"] ;
619 -> 620 ;
621 [label="popularity <= 0.0836\ngini = 0.2778\nsamples = 6\nvalue = [5, 1]"] ;
619 -> 621 ;
622 [label="book5 <= 0.5\ngini = 0.5\nsamples = 2\nvalue = [1, 1]"] ;
621 -> 622 ;
623 [label="gini = 0.0\nsamples = 1\nvalue = [0, 1]"] ;
622 -> 623 ;
624 [label="gini = 0.0\nsamples = 1\nvalue = [1, 0]"] ;
622 -> 624 ;
625 [label="gini = 0.0\nsamples = 4\nvalue = [4, 0]"] ;
621 -> 625 ;
626 [label="book5 <= 0.5\ngini = 0.4286\nsamples = 45\nvalue = [14, 31]"] ;
618 -> 626 ;
627 [label="popularity <= 0.1672\ngini = 0.2907\nsamples = 17\nvalue = [3, 14]"] ;
626 -> 627 ;
628 [label="popularity <= 0.0652\ngini = 0.1244\nsamples = 15\nvalue = [1, 14]"] ;
627 -> 628 ;
629 [label="gini = 0.0\nsamples = 1\nvalue = [1, 0]"] ;
628 -> 629 ;
630 [label="gini = 0.0\nsamples = 14\nvalue = [0, 14]"] ;
628 -> 630 ;
631 [label="gini = 0.0\nsamples = 2\nvalue = [2, 0]"] ;
627 -> 631 ;
632 [label="isNoble <= 0.5\ngini = 0.477\nsamples = 28\nvalue = [11, 17]"] ;
626 -> 632 ;
633 [label="book1 <= 0.5\ngini = 0.375\nsamples = 4\nvalue = [3, 1]"] ;
632 -> 633 ;
634 [label="gini = 0.0\nsamples = 2\nvalue = [2, 0]"] ;
633 -> 634 ;
635 [label="gini = 0.5\nsamples = 2\nvalue = [1, 1]"] ;
633 -> 635 ;
636 [label="book2 <= 0.5\ngini = 0.4444\nsamples = 24\nvalue = [8, 16]"] ;
632 -> 636 ;
637 [label="gini = 0.4444\nsamples = 3\nvalue = [2, 1]"] ;
636 -> 637 ;
638 [label="gini = 0.4082\nsamples = 21\nvalue = [6, 15]"] ;
636 -> 638 ;
639 [label="gini = 0.0\nsamples = 1\nvalue = [1, 0]"] ;
591 -> 639 ;
640 [label="gini = 0.0\nsamples = 7\nvalue = [0, 7]"] ;
590 -> 640 ;
641 [label="isMarried <= 0.5\ngini = 0.4993\nsamples = 27\nvalue = [14, 13]"] ;
589 -> 641 ;
642 [label="popularity <= 0.6789\ngini = 0.455\nsamples = 20\nvalue = [13, 7]"] ;
641 -> 642 ;
643 [label="book1 <= 0.5\ngini = 0.3047\nsamples = 16\nvalue = [13, 3]"] ;
642 -> 643 ;
644 [label="book2 <= 0.5\ngini = 0.4444\nsamples = 6\nvalue = [4, 2]"] ;
643 -> 644 ;
645 [label="gini = 0.0\nsamples = 3\nvalue = [3, 0]"] ;
644 -> 645 ;
646 [label="popularity <= 0.3729\ngini = 0.4444\nsamples = 3\nvalue = [1, 2]"] ;
644 -> 646 ;
647 [label="gini = 0.0\nsamples = 1\nvalue = [1, 0]"] ;
646 -> 647 ;
648 [label="gini = 0.0\nsamples = 2\nvalue = [0, 2]"] ;
646 -> 648 ;
649 [label="popularity <= 0.3595\ngini = 0.18\nsamples = 10\nvalue = [9, 1]"] ;
643 -> 649 ;
650 [label="popularity <= 0.3528\ngini = 0.4444\nsamples = 3\nvalue = [2, 1]"] ;
649 -> 650 ;
651 [label="gini = 0.0\nsamples = 2\nvalue = [2, 0]"] ;
650 -> 651 ;
652 [label="gini = 0.0\nsamples = 1\nvalue = [0, 1]"] ;
650 -> 652 ;
653 [label="gini = 0.0\nsamples = 7\nvalue = [7, 0]"] ;
649 -> 653 ;
654 [label="gini = 0.0\nsamples = 4\nvalue = [0, 4]"] ;
642 -> 654 ;
655 [label="isNoble <= 0.5\ngini = 0.2449\nsamples = 7\nvalue = [1, 6]"] ;
641 -> 655 ;
656 [label="gini = 0.0\nsamples = 1\nvalue = [1, 0]"] ;
655 -> 656 ;
657 [label="gini = 0.0\nsamples = 6\nvalue = [0, 6]"] ;
655 -> 657 ;
658 [label="book2 <= 0.5\ngini = 0.4964\nsamples = 59\nvalue = [27, 32]"] ;
588 -> 658 ;
659 [label="gini = 0.0\nsamples = 6\nvalue = [6, 0]"] ;
658 -> 659 ;
660 [label="popularity <= 0.0803\ngini = 0.4785\nsamples = 53\nvalue = [21, 32]"] ;
658 -> 660 ;
661 [label="gini = 0.0\nsamples = 2\nvalue = [2, 0]"] ;
660 -> 661 ;
662 [label="book1 <= 0.5\ngini = 0.4675\nsamples = 51\nvalue = [19, 32]"] ;
660 -> 662 ;
663 [label="gini = 0.0\nsamples = 6\nvalue = [0, 6]"] ;
662 -> 663 ;
664 [label="isNoble <= 0.5\ngini = 0.4879\nsamples = 45\nvalue = [19, 26]"] ;
662 -> 664 ;
665 [label="popularity <= 0.112\ngini = 0.32\nsamples = 5\nvalue = [4, 1]"] ;
664 -> 665 ;
666 [label="gini = 0.0\nsamples = 1\nvalue = [0, 1]"] ;
665 -> 666 ;
667 [label="gini = 0.0\nsamples = 4\nvalue = [4, 0]"] ;
665 -> 667 ;
668 [label="popularity <= 0.3997\ngini = 0.4688\nsamples = 40\nvalue = [15, 25]"] ;
664 -> 668 ;
669 [label="numDeadRelations <= 1.5\ngini = 0.4959\nsamples = 11\nvalue = [6, 5]"] ;
668 -> 669 ;
670 [label="isMarried <= 0.5\ngini = 0.2778\nsamples = 6\nvalue = [5, 1]"] ;
669 -> 670 ;
671 [label="gini = 0.0\nsamples = 4\nvalue = [4, 0]"] ;
670 -> 671 ;
672 [label="popularity <= 0.1722\ngini = 0.5\nsamples = 2\nvalue = [1, 1]"] ;
670 -> 672 ;
673 [label="gini = 0.0\nsamples = 1\nvalue = [1, 0]"] ;
672 -> 673 ;
674 [label="gini = 0.0\nsamples = 1\nvalue = [0, 1]"] ;
672 -> 674 ;
675 [label="isMarried <= 0.5\ngini = 0.32\nsamples = 5\nvalue = [1, 4]"] ;
669 -> 675 ;
676 [label="gini = 0.0\nsamples = 4\nvalue = [0, 4]"] ;
675 -> 676 ;
677 [label="gini = 0.0\nsamples = 1\nvalue = [1, 0]"] ;
675 -> 677 ;
678 [label="popularity <= 0.7475\ngini = 0.4281\nsamples = 29\nvalue = [9, 20]"] ;
668 -> 678 ;
679 [label="numDeadRelations <= 9.5\ngini = 0.1528\nsamples = 12\nvalue = [1, 11]"] ;
678 -> 679 ;
680 [label="gini = 0.0\nsamples = 11\nvalue = [0, 11]"] ;
679 -> 680 ;
681 [label="gini = 0.0\nsamples = 1\nvalue = [1, 0]"] ;
679 -> 681 ;
682 [label="popularity <= 0.8462\ngini = 0.4983\nsamples = 17\nvalue = [8, 9]"] ;
678 -> 682 ;
683 [label="gini = 0.0\nsamples = 4\nvalue = [4, 0]"] ;
682 -> 683 ;
684 [label="isMarried <= 0.5\ngini = 0.426\nsamples = 13\nvalue = [4, 9]"] ;
682 -> 684 ;
685 [label="gini = 0.0\nsamples = 4\nvalue = [0, 4]"] ;
684 -> 685 ;
686 [label="gini = 0.4938\nsamples = 9\nvalue = [4, 5]"] ;
684 -> 686 ;
}